63 25
0 -0.016464 0.071679 -0.152191 -0.001776 0.126865 0.073338 -0.021765 0.090925 -0.030010 -0.172275 0.428433 -0.219347 -0.167940 0.188418 0.074786 -0.134185 0.046712 0.277176 -0.021917 -0.066964 -0.627396 -0.059137 0.331947 -0.019340 0.001324
-1 -0.203261 0.091906 -0.332660 -0.304392 -0.079592 -0.201339 -0.256685 0.021178 -0.290937 0.095185 0.300831 -0.034657 -0.117576 -0.160458 0.249206 -0.021684 -0.143890 -0.175115 -0.213546 0.034667 -0.066602 0.065145 0.454957 0.051721 0.172189
1 -0.396903 -0.084483 -0.028820 0.182901 0.254791 -0.198754 -0.070131 -0.141042 -0.301468 -0.097022 0.263589 -0.014358 0.102651 0.129928 -0.009075 -0.064565 0.186723 -0.178022 0.012736 0.124571 -0.337311 0.100648 0.444175 0.045602 0.254256
-2 -0.320976 -0.083755 -0.103398 -0.222924 0.086548 -0.091810 -0.022193 -0.020877 -0.479290 0.113079 0.277261 -0.180125 -0.197233 0.276484 -0.267072 -0.095950 -0.165244 -0.084389 0.052731 0.199678 -0.296420 -0.236623 0.107325 -0.172396 -0.053383
-3 -0.103905 0.090405 -0.083497 -0.219324 0.193769 0.056011 -0.161133 0.191845 -0.400997 0.096544 0.067428 0.075039 0.119720 0.314091 0.261003 -0.300628 0.103487 -0.161310 -0.097356 -0.148002 -0.419655 0.030531 0.110239 0.336768 -0.000635
-4 -0.133677 0.406708 0.043371 0.174776 0.384817 -0.111927 -0.085797 0.064354 -0.314918 0.010040 0.158081 -0.296690 -0.235634 -0.042472 0.151039 -0.333510 -0.333219 -0.033982 0.055843 0.064203 -0.180787 0.120182 0.171101 -0.027102 0.109322
-5 -0.544598 0.231470 -0.079612 -0.081754 0.130295 0.143167 0.210029 0.197735 -0.209740 -0.056332 0.209307 -0.378714 -0.109146 -0.027488 0.089785 0.153661 0.024227 -0.137268 -0.208083 0.076966 -0.299950 -0.007198 0.108680 0.237524 -0.102399
-6 -0.218759 0.318293 0.008500 0.097602 -0.040025 -0.060223 -0.034808 0.207149 -0.374928 -0.090972 0.576720 0.101692 -0.099197 0.164465 0.026937 -0.169072 0.048127 -0.132314 -0.203500 0.092917 -0.044236 -0.289203 0.064151 -0.014401 0.272221
2 -0.130553 0.105234 -0.146161 -0.272306 0.135158 -0.166836 0.127074 -0.400636 -0.406541 0.159692 0.255586 -0.241990 0.157665 -0.136832 0.015688 -0.264815 0.071785 -0.028642 -0.189769 -0.116638 -0.373244 0.016041 -0.001764 0.007165 0.172572
3 -0.040299 -0.144061 -0.027553 -0.288819 0.301449 -0.225317 -0.098408 0.155081 -0.397475 -0.119462 0.431087 -0.169065 0.052604 0.109926 -0.145825 -0.145636 0.076846 0.189073 -0.084964 0.133244 0.029542 0.145973 0.341828 0.261519 -0.004979
-7 -0.196950 0.046648 -0.340405 0.234750 0.269566 0.094137 -0.077910 0.077890 -0.260081 0.209205 0.357297 -0.013373 -0.409381 0.183592 0.086317 -0.099269 -0.125058 -0.251198 -0.077960 -0.069598 -0.345564 0.023947 -0.023809 0.095626 0.131050
4 -0.106405 0.157321 -0.257520 -0.217245 -0.037763 -0.311616 0.090094 -0.072538 -0.156265 -0.060280 0.290784 -0.111188 0.213740 0.163734 0.183356 -0.127156 0.036068 -0.010008 0.187617 0.350309 -0.391640 0.266635 0.186354 -0.177630 -0.202930
5 -0.205684 0.158309 -0.095117 -0.329154 0.295663 -0.203279 -0.202143 -0.075026 0.037678 -0.109023 0.087741 -0.048870 0.146461 -0.020651 -0.037057 -0.279075 0.210918 -0.083071 -0.461649 0.200257 -0.282305 0.109400 0.312513 -0.145324 -0.020758
-8 -0.368491 -0.068164 0.065721 -0.021771 0.176258 0.207813 -0.119059 0.238055 -0.218139 -0.204546 0.298378 -0.076579 -0.082440 0.019809 0.208243 -0.061834 -0.344787 -0.285692 0.157269 -0.146972 -0.237116 -0.303145 0.115214 -0.031432 0.248529
6 -0.065920 -0.309527 -0.119304 -0.277916 0.183739 -0.425446 -0.049535 -0.209962 -0.188458 -0.162241 0.027715 -0.287616 0.044944 0.010334 0.143588 -0.065012 0.066393 0.154017 -0.135506 0.383485 -0.337499 0.006586 0.117512 0.231064 -0.008654
7 -0.098328 -0.059820 -0.298055 -0.280091 -0.023430 -0.129697 0.008811 -0.135301 -0.255737 0.173014 -0.014513 -0.322832 0.293494 0.053432 -0.031922 -0.278813 0.204359 0.253899 -0.068318 0.136392 -0.173196 0.306558 0.357506 -0.136573 0.127519
-9 -0.266850 0.323449 0.103197 0.141895 -0.215199 0.110236 -0.051122 0.213911 -0.358478 0.127347 0.206152 0.054136 -0.388700 0.084989 -0.219049 -0.100917 -0.120755 -0.161749 0.148134 -0.208525 -0.352868 0.093300 0.141490 0.114796 0.085639
8 -0.044535 -0.110894 -0.024761 -0.325383 0.156953 -0.245681 0.096983 -0.338571 -0.128132 -0.010810 0.244326 -0.098543 0.005996 -0.237566 -0.092003 -0.262444 0.260296 0.000860 0.047971 0.118007 -0.184186 0.219854 0.439054 0.050280 -0.298175
-10 -0.288385 0.204451 -0.128362 0.234249 0.101488 0.420514 -0.029661 0.188275 -0.203551 -0.013025 0.281988 -0.088530 -0.395258 0.287243 0.275503 -0.125866 -0.014992 -0.194204 -0.042537 -0.135968 0.090552 -0.214685 0.008466 0.040145 0.081102
9 0.056105 -0.136893 -0.252874 -0.246001 0.330047 -0.489372 -0.034615 0.039986 -0.130857 -0.184453 0.181520 -0.160337 0.285401 -0.148217 -0.149228 -0.033498 0.105836 0.077604 -0.079139 0.095669 -0.251678 0.390078 -0.048551 -0.123763 -0.002122
10 -0.111704 0.056228 0.013215 -0.496144 -0.078178 -0.389536 -0.116298 -0.297182 -0.007654 -0.210817 0.011956 -0.131045 0.270815 0.019563 -0.023327 -0.171252 0.260553 0.247812 0.059000 0.164328 -0.252929 0.219620 0.155341 0.129096 0.011642
-11 -0.229966 0.122011 0.003864 0.330856 -0.124376 0.061572 -0.296972 0.321149 -0.270362 -0.022851 0.209790 -0.137506 -0.300105 0.038114 0.196402 -0.081372 -0.005160 -0.272034 0.028667 -0.106063 -0.224215 -0.406368 -0.040904 0.180345 0.056620
11 -0.182708 -0.249341 -0.160953 -0.242667 0.167209 -0.330690 -0.192999 -0.206216 0.025202 0.074008 0.125529 -0.171122 0.326560 -0.233718 0.028789 -0.301849 0.096213 0.257945 -0.131881 0.342775 0.018272 0.174776 0.102367 -0.087958 -0.196035
-12 -0.250681 0.137387 0.066489 0.250345 0.067139 0.352917 -0.107202 0.298134 -0.119888 0.000589 0.359979 -0.080187 -0.351027 0.158417 0.002640 0.119574 -0.220082 -0.334056 0.035764 -0.178752 -0.001714 0.059748 -0.251748 0.055969 0.213081
12 0.195983 -0.199665 -0.225551 -0.264002 -0.126012 -0.324854 -0.020389 -0.091741 -0.080361 -0.268568 -0.061869 -0.109447 0.200472 -0.177293 -0.170287 -0.287110 0.298362 0.104544 -0.120392 0.232190 -0.203349 0.232338 0.307259 -0.092288 -0.163875
-13 -0.297285 0.251343 -0.075604 0.108053 0.007348 0.226736 -0.066388 0.362278 -0.136688 -0.061022 0.081016 0.094059 -0.493020 0.064987 0.109533 -0.113295 -0.025290 -0.337403 0.155030 -0.318224 -0.140254 -0.209815 -0.079387 -0.149182 -0.044337
13 0.081914 -0.166974 -0.042761 -0.519448 0.106271 -0.349748 -0.027889 -0.177285 0.150979 -0.036173 0.047423 -0.122307 0.260564 -0.161317 -0.116271 -0.190646 0.423676 0.092604 0.072628 0.289614 -0.015620 0.243194 0.014021 0.077322 -0.006815
-14 -0.290446 -0.016572 0.160416 0.437546 -0.099961 0.343576 -0.196368 0.237914 -0.200637 0.001511 0.211567 -0.173324 -0.267964 0.079425 0.040524 -0.143704 -0.056041 -0.311126 0.110096 -0.104793 -0.001385 -0.293375 -0.182405 0.036459 0.125725
14 -0.066123 -0.298060 -0.059241 -0.277412 0.048091 -0.196893 -0.011164 -0.256319 0.005063 -0.254297 -0.121264 -0.045923 0.381645 -0.259311 -0.098242 -0.333362 0.106208 0.205840 -0.059793 0.146266 -0.063574 0.431039 0.032706 0.036523 -0.182686
15 -0.011148 -0.133532 -0.180816 -0.248060 -0.151614 -0.409681 -0.089023 -0.240837 0.148826 -0.047955 -0.072375 -0.144728 0.265905 -0.347775 -0.124601 -0.133088 0.349219 0.270102 0.037654 0.274256 0.048927 0.246743 0.055241 -0.033363 -0.128667
-15 -0.114624 0.155634 0.077782 0.267683 -0.209466 0.255586 -0.177921 0.241099 -0.079394 -0.066581 0.277560 -0.004193 -0.590271 0.107881 0.136706 0.073602 -0.023024 -0.301907 0.136923 -0.172653 0.028028 -0.131699 -0.199145 0.099857 -0.077452
16 0.089603 -0.185779 -0.009971 -0.292633 -0.116189 -0.282777 -0.032250 -0.129798 0.185915 -0.170292 -0.139964 0.043317 0.309201 -0.310364 -0.236365 -0.320562 0.255990 0.214839 0.100033 0.255453 -0.070206 0.331119 0.045307 -0.049711 -0.136900
-16 -0.331555 0.135037 0.132928 0.310606 -0.052077 0.328470 -0.243976 0.294866 -0.057732 -0.075768 0.035584 -0.143013 -0.349216 0.052021 0.094131 -0.023022 0.071602 -0.301949 0.199893 -0.366271 -0.009194 -0.101423 -0.229929 -0.045676 0.006112
17 0.118846 -0.237652 -0.098177 -0.295629 -0.065835 -0.269608 -0.061934 -0.156446 0.126858 -0.180515 -0.258609 0.024334 0.247881 -0.346211 -0.222400 -0.265353 0.292258 0.145599 -0.005537 0.190462 0.134666 0.358536 -0.075954 0.058857 -0.104217
-17 -0.105876 -0.072731 0.049239 0.275338 -0.097140 0.290470 -0.196033 0.331007 -0.050748 -0.069629 0.115356 0.009319 -0.525320 0.057318 0.075996 0.023797 0.022019 -0.320189 0.159007 -0.208169 0.211654 -0.197244 -0.277501 -0.147022 0.055750
18 0.033784 -0.209980 -0.089990 -0.194618 -0.178077 -0.239281 -0.088687 -0.142311 0.298422 -0.193953 -0.188050 0.092681 0.296000 -0.391743 -0.200238 -0.219568 0.177978 0.181930 0.078453 0.351564 0.122853 0.248298 -0.070656 0.001553 -0.124228
-18 -0.165837 0.049890 0.131641 0.301904 -0.058523 0.319346 -0.307834 0.230453 0.047746 -0.103074 0.094521 -0.099933 -0.364343 0.025057 0.097148 0.081544 0.057268 -0.310163 0.221515 -0.319593 0.108694 -0.097454 -0.383152 -0.054280 -0.072239
19 0.062102 -0.167884 0.052911 -0.197536 -0.237511 -0.213095 0.011846 -0.070102 0.211040 -0.228068 -0.261476 0.179630 0.251323 -0.435430 -0.186512 -0.186011 0.284790 0.236062 0.054513 0.186558 0.167981 0.257859 -0.100772 0.056896 -0.131212
31 0.338582 -0.095095 -0.267455 -0.065647 0.262375 0.276258 -0.128998 -0.395352 0.139293 0.191918 0.019795 0.219889 -0.165669 0.026171 0.075851 0.418757 -0.119236 -0.130235 0.037302 0.058786 -0.278343 -0.101443 -0.175901 0.044084 0.107139
-19 -0.078886 -0.036631 0.214632 0.315037 -0.175431 0.259144 -0.246106 0.198483 -0.002464 -0.070623 0.032250 -0.081949 -0.409815 0.029729 0.164245 0.100972 0.178003 -0.260559 0.197598 -0.247123 0.216709 -0.187116 -0.358586 -0.136268 -0.040652
20 0.107670 -0.145922 0.018820 -0.123219 -0.210736 -0.123872 -0.004769 -0.047821 0.300486 -0.180987 -0.334156 0.199128 0.238093 -0.430922 -0.202371 -0.168373 0.167300 0.197448 0.055718 0.260617 0.251013 0.222517 -0.191796 0.040664 -0.120443
-20 -0.016348 -0.002610 0.227172 0.281250 -0.129364 0.252982 -0.240351 0.201464 0.033757 -0.056154 0.030439 -0.125707 -0.382416 0.025544 0.101562 0.138930 0.134245 -0.177132 0.275968 -0.255751 0.280963 -0.031290 -0.382366 -0.261315 -0.083787
21 0.110511 -0.098222 0.031736 -0.064329 -0.309800 -0.069762 0.012728 -0.045089 0.283655 -0.174770 -0.347601 0.310955 0.198175 -0.456572 -0.171261 -0.098198 0.124852 0.168148 0.086951 0.227880 0.278951 0.170851 -0.159593 0.072692 -0.116699
-31 0.238700 -0.035327 0.107369 -0.000059 0.220337 0.644644 0.004120 0.017172 -0.070904 0.165663 -0.312412 -0.006964 0.235363 0.008284 -0.220548 0.126219 -0.018187 0.221998 -0.052082 -0.004766 -0.026328 0.088641 0.175217 0.052751 0.348252
-21 0.061895 -0.042240 0.163775 0.278251 -0.057043 0.188818 -0.242509 0.075846 0.103303 -0.047181 -0.043690 -0.020081 -0.286455 0.025669 0.137748 0.251140 0.196669 -0.135769 0.248269 -0.237572 0.315896 -0.117300 -0.465507 -0.276165 -0.158100
22 0.109359 0.007908 0.128303 -0.018276 -0.302592 0.041774 0.063802 0.036723 0.255794 -0.185607 -0.422767 0.388028 0.134018 -0.425039 -0.111536 -0.048281 0.059671 0.166230 0.008618 0.179215 0.345354 0.044935 -0.200257 0.036310 -0.061588
-22 0.203091 -0.067364 0.271218 0.218122 -0.086556 0.161060 -0.194905 0.004738 0.128144 -0.021578 -0.073816 -0.077404 -0.179458 0.022623 0.150460 0.303886 0.228109 0.002213 0.268147 -0.149682 0.367943 -0.069456 -0.419613 -0.320799 -0.141662
23 0.165235 0.039275 0.084841 0.081715 -0.310166 0.180501 0.135035 0.029751 0.234166 -0.106618 -0.430229 0.458366 0.043342 -0.338162 -0.053168 0.115072 -0.051210 0.140878 0.019789 0.168384 0.344902 -0.023157 -0.171409 0.124104 0.013705
-23 0.310992 -0.046421 0.261976 0.171734 0.008751 0.128616 -0.134073 -0.082527 0.081781 0.054911 -0.134119 -0.021511 -0.015438 0.040527 0.148374 0.352657 0.208106 0.145929 0.201266 -0.089529 0.409470 -0.071264 -0.398014 -0.347639 -0.141575
24 0.191153 0.101478 0.073098 0.101101 -0.284186 0.245387 0.168952 0.033660 0.198314 -0.084686 -0.419304 0.474790 -0.022030 -0.295089 0.009849 0.197287 -0.148379 0.112251 -0.043244 0.145095 0.296290 -0.108266 -0.172390 0.075736 -0.010864
25 0.230025 0.126894 0.027007 0.124651 -0.209513 0.344480 0.187894 0.017789 0.154574 -0.036191 -0.404571 0.453414 -0.080626 -0.201239 0.074005 0.299362 -0.214094 0.084813 -0.075688 0.125490 0.232289 -0.157004 -0.124527 0.067511 0.082466
-24 0.394160 -0.045954 0.248181 0.102222 0.089038 0.152433 -0.045898 -0.154422 0.096638 0.109624 -0.205945 0.006975 0.147882 0.060948 0.104948 0.404499 0.166630 0.250360 0.165837 -0.017576 0.369606 -0.048415 -0.268952 -0.335976 -0.083111
26 0.282549 0.107268 -0.034527 0.112477 -0.105873 0.397525 0.208310 -0.033794 0.138236 0.031623 -0.349547 0.416840 -0.128064 -0.109987 0.088059 0.391534 -0.248892 0.067765 -0.098783 0.111497 0.143884 -0.200251 -0.105484 0.079426 0.092088
-25 0.414260 -0.036755 0.249861 0.070084 0.138669 0.203047 0.001164 -0.170254 0.016289 0.154233 -0.208937 0.002491 0.237807 0.075126 0.092596 0.384981 0.139441 0.317995 0.124309 0.012913 0.345571 -0.049031 -0.191563 -0.296672 -0.028936
27 0.325926 0.083163 -0.112289 0.092686 -0.046286 0.412042 0.177172 -0.116998 0.146038 0.078550 -0.286281 0.380269 -0.167054 -0.056972 0.113677 0.435014 -0.269051 0.024988 -0.090149 0.120888 0.043701 -0.201381 -0.091868 0.054447 0.108006
-26 0.426467 -0.027595 0.253176 0.045373 0.188563 0.275897 0.042508 -0.144525 -0.021361 0.192246 -0.239459 -0.004008 0.279954 0.087568 0.041744 0.371193 0.082523 0.348834 0.094637 0.035623 0.283568 -0.037800 -0.082247 -0.258786 0.046935
28 0.335710 0.054889 -0.157309 0.075291 0.034825 0.410675 0.142376 -0.173116 0.123178 0.114779 -0.230483 0.346988 -0.169519 -0.014126 0.115445 0.470390 -0.271241 0.005947 -0.099347 0.106261 -0.035728 -0.208230 -0.105783 0.057452 0.120285
-27 0.418747 -0.040651 0.204031 0.034680 0.222799 0.357388 0.070412 -0.138170 -0.022806 0.205868 -0.266571 0.006418 0.332938 0.097358 -0.011205 0.344099 0.042133 0.353456 0.051591 0.024344 0.222935 -0.017221 -0.004525 -0.181103 0.114527
29 0.376471 0.012276 -0.190955 0.041144 0.080921 0.383032 0.115347 -0.218176 0.162459 0.131046 -0.199086 0.316220 -0.188213 0.007757 0.113365 0.478612 -0.247685 -0.021192 -0.078287 0.096007 -0.071820 -0.183178 -0.106110 0.058861 0.120883
-28 0.391711 -0.033298 0.212176 0.017792 0.223098 0.439026 0.060087 -0.106382 -0.054756 0.206599 -0.299956 0.017800 0.326253 0.066142 -0.051513 0.290277 0.021807 0.350045 0.024452 0.039441 0.186566 0.006840 0.050856 -0.135840 0.167092
30 0.388421 -0.028270 -0.225255 0.012220 0.119716 0.355139 0.064090 -0.291581 0.188047 0.147987 -0.150653 0.272552 -0.185554 0.032588 0.107847 0.482780 -0.214742 -0.061902 -0.043133 0.087778 -0.118471 -0.173179 -0.135244 0.036747 0.101175
-29 0.381636 -0.035076 0.183662 0.020623 0.239321 0.475478 0.073456 -0.096339 -0.063410 0.221949 -0.296947 0.013128 0.314590 0.078107 -0.076401 0.287200 0.000543 0.328375 0.009186 0.030421 0.130995 0.007273 0.086971 -0.101296 0.205030
-30 0.344957 -0.067378 0.171838 0.018798 0.238728 0.520308 0.072742 -0.051303 -0.021500 0.211636 -0.321567 -0.031814 0.314759 0.085830 -0.141968 0.220369 -0.006319 0.289841 -0.019364 -0.026008 0.098146 0.049412 0.144873 -0.054878 0.254850
