63 25
0 -0.105340 0.207781 0.221801 -0.243274 0.360935 -0.097017 -0.090665 0.102945 -0.382710 -0.115373 0.415405 -0.038505 -0.152527 -0.076334 0.142132 -0.200766 0.109503 0.213747 0.056947 -0.036834 -0.168242 -0.181707 0.061995 -0.324484 -0.150642
2 -0.016583 0.155898 -0.113488 -0.219291 0.184915 -0.246267 -0.048094 -0.173233 -0.384301 0.147321 0.232340 -0.363629 0.264854 -0.153691 0.002957 -0.226329 0.142166 0.097827 -0.093219 -0.057490 -0.357287 0.097570 -0.108798 -0.033885 0.307820
1 -0.281788 0.011433 -0.086639 -0.078464 0.279527 0.010323 -0.293727 -0.175450 -0.362757 -0.050973 0.216679 0.048683 0.177042 0.216497 -0.182140 -0.141898 0.229599 0.116341 0.205705 -0.059649 -0.302948 -0.001159 0.433125 0.039492 0.058373
3 -0.192746 -0.021869 -0.102409 -0.225129 0.401304 -0.282488 -0.129356 0.115657 -0.310995 -0.031334 0.363232 -0.170383 -0.085288 0.008442 -0.068321 0.057495 0.324389 0.204471 -0.013194 0.200958 0.150522 0.340557 -0.004231 0.168070 -0.041989
4 -0.159333 0.314912 -0.172627 -0.090059 -0.057536 -0.180902 -0.028261 -0.034563 -0.227376 -0.082293 0.369731 -0.117784 0.176794 0.025823 0.034034 -0.145475 -0.089275 -0.047991 0.275865 0.197150 -0.318853 0.428110 0.079685 -0.305131 -0.163005
-1 -0.021258 0.184650 -0.092460 -0.370939 0.124731 0.153755 -0.259696 0.018548 -0.290017 -0.000321 0.470642 -0.278682 -0.020654 -0.047801 0.021843 -0.166871 -0.130949 -0.031138 -0.227601 0.010344 -0.011752 0.229951 0.401142 -0.041833 0.110929
5 -0.286029 0.131614 0.045500 0.062226 0.118815 -0.130149 -0.345460 -0.061839 -0.050395 -0.288329 0.304114 -0.015997 0.117016 0.035677 -0.094403 -0.148570 0.280688 -0.045770 -0.463904 0.289081 -0.321889 0.117373 -0.041536 -0.132493 0.003304
6 -0.037403 -0.286272 0.066628 -0.367299 0.063237 -0.294246 -0.371931 -0.057378 -0.361689 -0.127358 0.007233 -0.159078 -0.057859 -0.055631 0.094500 -0.303623 0.026601 -0.030380 0.196632 0.310690 -0.311847 0.088781 0.137853 -0.012892 0.063384
7 -0.315301 -0.044742 -0.096182 -0.317834 0.008450 -0.118399 -0.146754 -0.162326 -0.169159 0.140404 0.183217 -0.238034 0.126808 -0.043165 -0.122521 -0.363420 0.431780 0.221508 -0.015934 0.019691 -0.029745 0.116731 0.150231 -0.344644 -0.175360
8 0.007085 -0.187196 0.187437 -0.065292 0.135828 -0.255239 -0.148304 -0.095504 0.037164 0.049113 0.623698 0.017479 0.265863 -0.226653 -0.103383 -0.312840 0.246463 0.075200 0.067777 0.139874 -0.143913 0.190218 0.193062 0.047069 -0.012263
-2 -0.277828 -0.026701 -0.024926 -0.190639 0.322730 -0.055869 0.085251 0.071801 -0.469652 0.100605 0.349392 -0.086853 0.056349 0.175050 -0.210012 0.023147 -0.152989 0.098713 -0.091794 0.280131 -0.219915 -0.072256 -0.009404 -0.335566 0.200843
9 0.184631 -0.046171 -0.186848 -0.150237 0.280661 -0.260671 -0.353169 0.194678 -0.049180 -0.228521 -0.003414 -0.112494 0.191694 -0.251634 -0.208571 -0.082235 0.255607 -0.027766 0.028294 -0.084463 -0.214678 0.346175 0.073540 -0.365642 0.015620
10 -0.268777 0.142637 0.199610 -0.257807 -0.117805 -0.366729 -0.425002 -0.234707 0.062451 -0.193017 0.175444 -0.066893 0.064125 0.019361 -0.104079 -0.171879 0.242844 0.229071 0.108691 0.020125 0.013490 0.333044 0.016908 -0.038268 0.243382
-3 -0.120922 0.275057 -0.081469 -0.151714 0.126711 0.050433 -0.026774 0.276833 -0.491284 0.245531 0.253258 0.047992 -0.004424 0.206883 0.247561 -0.131790 0.371200 -0.120634 -0.098730 -0.080547 -0.284502 0.044053 0.190915 0.038014 0.072100
11 -0.212993 -0.042037 -0.316122 -0.294783 -0.038438 -0.424499 -0.353669 -0.250329 0.012272 -0.073081 0.229012 0.121781 0.201602 -0.255284 -0.080864 -0.259844 0.063420 0.025685 0.020088 0.137554 0.088392 -0.000144 -0.106848 -0.102420 -0.300413
12 0.083998 -0.188820 -0.104265 0.044925 -0.319699 -0.292246 -0.233791 -0.053211 -0.024778 -0.344298 0.148891 -0.165405 -0.059067 -0.204170 -0.308961 -0.347261 0.260388 0.209086 0.014434 0.160835 -0.097779 0.284763 0.021833 -0.102564 -0.173642
-4 -0.155249 0.233193 0.151523 0.350901 0.465560 -0.029507 0.016099 -0.014636 -0.515001 0.156510 0.148658 -0.198172 -0.166760 -0.001234 0.044515 -0.248170 -0.140078 0.054038 0.038863 0.096852 -0.165516 0.038799 0.182914 0.031583 0.134445
13 -0.042698 -0.018971 0.265994 -0.331674 -0.043915 -0.357164 -0.130551 -0.014634 0.264450 -0.287852 0.119707 -0.147359 0.209552 -0.290433 -0.114354 -0.182624 0.415538 -0.092516 0.179857 0.176891 -0.129301 0.134765 -0.025159 0.017471 -0.161514
-5 -0.347464 0.184976 -0.017144 -0.187189 0.318847 0.390047 0.084863 0.164773 -0.497880 -0.065201 0.107678 -0.277904 0.033445 0.238971 0.131570 0.095709 -0.097750 0.055193 -0.033518 -0.027782 -0.241029 -0.006232 0.037128 0.134514 -0.061694
14 -0.175278 -0.323619 0.013453 -0.217283 0.019704 -0.131702 -0.165687 -0.137240 0.201886 -0.283600 0.032304 -0.022310 0.330086 -0.220395 -0.099973 -0.475553 0.054234 0.050609 -0.046027 -0.007085 0.120914 0.426831 -0.002400 -0.141852 -0.110118
15 -0.149121 -0.200107 -0.070492 -0.021769 -0.212814 -0.484669 -0.322974 0.052338 0.273522 -0.030042 -0.008245 -0.113558 0.185124 -0.414774 -0.285800 -0.150778 0.186300 0.147125 0.083617 0.147246 0.008393 0.103379 0.127090 -0.122507 -0.136688
-6 -0.203947 0.339997 0.025037 0.022917 0.031884 0.132631 0.035307 0.274559 -0.536658 0.164821 0.338064 -0.104811 -0.063333 0.261686 -0.045919 0.095072 -0.044884 0.017073 -0.077447 0.021843 0.105336 -0.228787 0.282715 -0.136635 0.226987
16 0.142979 -0.069463 0.058966 -0.145895 -0.243833 -0.379910 -0.317748 0.060013 0.200781 -0.166986 0.054627 0.197342 0.217093 -0.122753 -0.281371 -0.492784 0.200664 0.066642 0.069546 0.018847 -0.028552 0.197136 -0.139067 0.041625 -0.191418
-7 -0.272057 0.231419 -0.155081 -0.123709 0.376165 0.235735 0.111194 0.196559 -0.391930 0.316305 0.205023 0.109025 -0.276024 0.135704 -0.103795 -0.120752 -0.132917 -0.096416 -0.039567 -0.075503 -0.251859 0.047280 -0.019816 -0.052761 0.233224
17 -0.167729 -0.111463 -0.040354 -0.190102 -0.301840 -0.405246 -0.194317 -0.116001 0.217330 -0.243314 -0.081037 0.030459 0.126379 -0.357881 -0.185994 -0.259417 0.311553 -0.021609 0.056406 -0.052624 0.201841 0.247748 -0.163768 -0.023083 -0.149346
-8 -0.197545 0.130825 0.034486 0.126422 0.308133 0.287259 0.091520 0.271758 -0.577889 0.093363 0.206310 -0.141552 0.044400 0.066446 0.180193 0.055600 -0.163865 -0.251909 -0.056292 -0.024065 -0.116517 -0.235302 0.032630 0.083742 0.220676
18 -0.076775 -0.135946 0.027800 -0.048656 -0.199326 -0.331087 -0.173601 -0.011132 0.444945 -0.317271 -0.052193 0.089470 0.211125 -0.247911 -0.332195 -0.330690 0.044244 -0.051563 0.210312 0.218773 0.115240 0.161868 0.084547 -0.092318 -0.076836
-9 -0.282729 0.299768 0.190318 0.120343 0.185005 0.223253 0.144436 0.322792 -0.553900 0.213071 0.115888 -0.016571 -0.272713 0.236706 -0.045238 0.086268 -0.209067 0.032768 0.006474 -0.049223 -0.043373 -0.052171 0.029103 0.082756 0.070916
19 -0.074173 -0.200451 -0.003727 -0.144826 -0.314821 -0.366471 -0.160062 0.088433 0.294911 -0.296309 -0.107789 0.148270 0.072548 -0.456106 -0.226832 -0.256337 0.180803 0.042080 -0.057206 -0.136134 0.049405 0.201144 -0.043816 0.058908 -0.151954
-10 -0.222679 0.293347 -0.007889 0.066764 0.267915 0.441550 0.101906 0.336814 -0.437792 0.225351 0.095464 -0.071083 -0.149292 0.220599 0.053788 -0.042810 -0.104808 -0.158651 0.046834 -0.114748 0.047555 -0.115733 0.086045 -0.002946 0.249792
20 -0.065546 -0.033073 0.122027 -0.060145 -0.278278 -0.391607 -0.033973 0.079438 0.362083 -0.148382 -0.111093 -0.005758 0.281498 -0.235284 -0.288048 -0.349737 0.125251 0.059234 0.045640 0.140475 0.329065 0.197555 -0.070069 0.051301 -0.191293
31 0.230047 0.127252 -0.336824 -0.064739 0.140113 0.236012 0.022819 -0.395997 0.029330 0.139256 0.034701 0.325433 -0.109329 -0.094458 0.205406 0.358852 -0.182673 -0.040258 -0.107288 0.268370 -0.285846 -0.200548 -0.077011 0.119453 0.026844
-11 -0.210289 0.206218 0.087412 0.163599 0.132656 0.415404 0.205622 0.372655 -0.472772 0.234399 0.086430 -0.081201 -0.135372 0.145834 0.104118 0.106373 -0.080798 -0.086079 0.104771 -0.099917 -0.105504 -0.284977 -0.064770 0.099743 0.109010
21 -0.070512 -0.127128 0.007433 0.018315 -0.447029 -0.363073 -0.056056 0.039119 0.392169 -0.181668 -0.204339 0.221670 0.184519 -0.338211 -0.171974 -0.276793 0.028416 -0.059000 0.105672 0.052876 0.133832 0.164696 -0.049215 0.165779 -0.128991
-12 -0.274686 0.185615 0.098172 0.189202 0.145647 0.408594 0.043977 0.282623 -0.407487 0.218996 0.057643 -0.034128 -0.224859 0.075347 -0.049629 0.109418 -0.302567 -0.219885 0.046396 -0.131506 0.061524 -0.051269 -0.114564 0.081686 0.316178
22 -0.022774 -0.091932 0.042083 -0.054698 -0.334363 -0.274992 0.026057 0.125550 0.456126 -0.267619 -0.326583 0.216249 0.124725 -0.344486 -0.287148 -0.287041 0.049516 -0.050621 -0.075421 0.013387 0.154549 0.064210 -0.028185 0.049526 -0.090020
-13 -0.202383 0.214721 0.104859 0.163252 0.176459 0.510743 0.120731 0.385489 -0.343130 0.231340 -0.031293 -0.011236 -0.242217 0.091313 -0.010394 0.085881 -0.091094 -0.171715 0.132190 -0.219351 0.050123 -0.166283 -0.113946 0.024224 0.161730
23 -0.013332 -0.101145 -0.036166 0.077073 -0.415132 -0.329324 0.128886 0.118102 0.398378 -0.178874 -0.244321 0.262744 0.101452 -0.237823 -0.249834 -0.232804 -0.019014 0.013871 0.056249 0.128802 0.309704 0.121701 -0.047909 0.164024 -0.088682
-14 -0.208941 0.110230 0.127794 0.309439 0.035354 0.558508 0.081872 0.344249 -0.269020 0.180724 0.019479 -0.019121 -0.249749 0.071027 -0.013396 0.086335 -0.186056 -0.157678 0.168166 -0.129788 0.127515 -0.205984 -0.108584 0.047579 0.188518
24 -0.004004 -0.041581 0.060552 -0.029902 -0.439014 -0.208872 0.186020 0.165475 0.388652 -0.135109 -0.336752 0.242542 0.125548 -0.294022 -0.216199 -0.201931 -0.065730 -0.003852 -0.071435 0.011720 0.283234 -0.015044 0.020082 0.207474 -0.174968
-15 -0.159366 0.115469 0.121776 0.264826 0.022788 0.577700 0.015554 0.326846 -0.228859 0.157393 -0.044941 0.019887 -0.312358 0.005188 0.013789 0.164083 -0.139392 -0.220499 0.184492 -0.211095 0.120258 -0.142801 -0.174948 0.058152 0.123356
25 0.021707 0.010535 -0.027380 0.045930 -0.407509 -0.163375 0.265098 0.141742 0.427589 -0.179072 -0.360173 0.285590 0.041871 -0.278248 -0.129667 -0.132731 -0.167492 -0.069504 -0.118260 0.094269 0.275424 -0.014314 0.033247 0.188018 -0.073269
-16 -0.104502 0.049024 0.159501 0.265132 -0.037574 0.602034 0.007378 0.305702 -0.130937 0.136309 -0.164763 -0.000461 -0.231639 0.003035 0.000650 0.206679 -0.081997 -0.159137 0.231684 -0.235909 0.183705 -0.123619 -0.257079 0.003272 0.133467
26 0.050128 0.023809 -0.046758 0.059288 -0.379324 -0.077918 0.357164 0.134968 0.365261 -0.129913 -0.373888 0.324848 -0.008269 -0.223586 -0.109101 -0.022819 -0.183290 -0.032551 -0.145197 0.090735 0.259867 -0.107398 0.028082 0.296176 -0.076426
-17 -0.040419 -0.045932 0.128739 0.291027 -0.119156 0.567783 -0.048299 0.234254 -0.005717 0.035127 -0.176815 0.085177 -0.310674 -0.082102 0.026238 0.253011 -0.058916 -0.138910 0.249747 -0.150239 0.227440 -0.163505 -0.318492 -0.020570 0.073620
27 0.158531 0.087318 -0.130825 0.065529 -0.344046 0.065555 0.388239 0.031523 0.360292 -0.026617 -0.340702 0.358471 -0.078066 -0.161640 -0.025086 0.071653 -0.269258 -0.067934 -0.165423 0.151188 0.154077 -0.174523 0.075290 0.265500 -0.025839
-18 0.107036 -0.051942 0.152475 0.293306 -0.112409 0.545719 -0.068820 0.092592 0.136906 0.048096 -0.271057 0.078542 -0.208950 -0.094995 0.060969 0.314144 -0.024850 -0.085240 0.255811 -0.174299 0.237416 -0.104362 -0.354187 -0.019422 0.015577
28 0.168561 0.106215 -0.200011 0.076792 -0.224457 0.142142 0.373979 -0.066486 0.259054 0.008803 -0.279329 0.378388 -0.110041 -0.137762 0.067926 0.215490 -0.312306 -0.051729 -0.211184 0.186614 0.064219 -0.241781 0.019462 0.293524 -0.016155
-31 0.342238 -0.063130 0.143816 -0.029064 0.019028 0.354430 0.222804 -0.108617 0.074034 0.225103 -0.449411 0.033855 0.425788 0.006786 -0.113840 0.030571 -0.040954 0.274034 -0.081799 -0.003796 0.115505 0.036558 0.208571 0.107650 0.249376
-19 0.215351 -0.123624 0.166456 0.260366 -0.160077 0.439020 -0.096809 -0.032788 0.196295 -0.018496 -0.305682 0.112510 -0.161185 -0.116355 0.118343 0.349708 0.074170 0.014000 0.228523 -0.084365 0.271509 -0.104006 -0.371158 -0.074909 -0.017263
29 0.227429 0.131050 -0.255086 0.041074 -0.114290 0.230376 0.338361 -0.138943 0.191325 0.057451 -0.207651 0.356585 -0.159366 -0.093113 0.132486 0.288981 -0.295653 -0.049009 -0.213141 0.219432 -0.037680 -0.253373 0.034375 0.261702 0.020728
-20 0.317226 -0.117458 0.148859 0.206040 -0.155000 0.349332 -0.099754 -0.146515 0.256146 -0.024037 -0.298841 0.112181 -0.077894 -0.111173 0.168515 0.382538 0.093990 0.095513 0.199129 -0.020657 0.271319 -0.072313 -0.362821 -0.100664 -0.059951
30 0.230657 0.141747 -0.317891 0.006583 0.017687 0.259676 0.210144 -0.274002 0.104732 0.106443 -0.069500 0.331363 -0.167706 -0.050668 0.190770 0.358100 -0.270985 -0.071296 -0.167272 0.247530 -0.167484 -0.269380 -0.021029 0.192431 0.022769
-21 0.400883 -0.087633 0.124795 0.149106 -0.110046 0.249370 -0.067425 -0.262352 0.241583 -0.003771 -0.302674 0.156195 0.035170 -0.088083 0.214238 0.406148 0.131916 0.176064 0.136578 0.054704 0.240201 -0.093551 -0.314898 -0.093862 -0.086234
-22 0.452116 -0.063585 0.132822 0.105341 -0.103769 0.194430 -0.022440 -0.307572 0.224406 0.023192 -0.281473 0.132477 0.100334 -0.060178 0.248177 0.403524 0.129543 0.227688 0.107131 0.098306 0.226827 -0.096667 -0.259447 -0.093192 -0.082420
-23 0.483009 -0.044738 0.120115 0.078305 -0.064926 0.161183 0.020319 -0.338243 0.188881 0.066949 -0.280820 0.142620 0.169732 -0.023243 0.259737 0.386863 0.103316 0.261446 0.055330 0.111523 0.220396 -0.121556 -0.212739 -0.070917 -0.071604
-24 0.494215 -0.019079 0.111604 0.052310 -0.055338 0.170936 0.070993 -0.344361 0.174064 0.098875 -0.300709 0.157986 0.221795 -0.015320 0.251673 0.374758 0.079412 0.274450 0.031761 0.132249 0.194651 -0.120285 -0.138594 -0.047398 -0.040973
-25 0.503994 -0.035017 0.116675 0.046159 -0.027769 0.198993 0.123477 -0.334886 0.147682 0.149999 -0.319045 0.134789 0.271241 0.023111 0.226183 0.340012 0.048527 0.282300 0.008373 0.096646 0.200760 -0.124856 -0.091839 -0.017891 -0.003080
-26 0.504092 -0.028481 0.121380 0.028580 -0.030638 0.215136 0.171356 -0.301818 0.149110 0.169626 -0.361179 0.143491 0.290513 0.019420 0.184267 0.312920 0.006231 0.284659 -0.014109 0.102390 0.182932 -0.125717 -0.025239 0.009887 0.037420
-27 0.487267 -0.037722 0.118618 0.044098 -0.015966 0.264073 0.189702 -0.277768 0.137261 0.188635 -0.378968 0.126962 0.323587 0.040337 0.158852 0.286083 -0.007750 0.279068 -0.021933 0.059662 0.181880 -0.112750 0.001039 0.037136 0.072631
-28 0.478230 -0.038900 0.124815 0.025870 -0.003060 0.286318 0.195817 -0.269810 0.131031 0.207209 -0.401875 0.130871 0.327525 0.035935 0.124719 0.251148 -0.032264 0.275257 -0.043703 0.059819 0.169913 -0.098982 0.036924 0.052883 0.096712
-29 0.467406 -0.067041 0.142123 0.028843 0.007110 0.283417 0.216344 -0.243761 0.132349 0.231443 -0.415197 0.073041 0.356112 0.077385 0.078339 0.219794 -0.029360 0.271123 -0.042731 0.009142 0.160238 -0.077337 0.078254 0.053899 0.128006
-30 0.433861 -0.071129 0.144062 0.010665 0.016423 0.304510 0.235573 -0.195740 0.126033 0.224794 -0.437499 0.062568 0.387318 0.058027 0.018825 0.157427 -0.039457 0.274030 -0.067214 -0.005900 0.154037 -0.037869 0.131022 0.074806 0.172190
